tree
version=v4
num_class=1
num_tree_per_iteration=1
label_index=0
max_feature_idx=103
objective=binary sigmoid:1
feature_names=sma_10 sma_20 sma_50 ema_9 ema_21 ema_55 macd macd_histogram macd_signal adx di_plus di_minus rsi stoch_k stoch_d cci willr bb_lower bb_mid bb_upper bb_bandwidth bb_percent atr obv mfi mid_20 price_position momentum_score price_sma20_ratio price_sma50_ratio price_ema21_ratio sma10_sma20_cross high_low_range close_open_range bb_pct_b bb_width return_1 return_3 return_6 return_12 return_24 log_return_1 cum_return_6 cum_return_12 cum_return_24 volatility_6 zscore_6 volatility_12 zscore_12 volatility_24 zscore_24 skew_20 kurt_20 rsi_lag_1 rsi_lag_3 rsi_lag_6 rsi_lag_12 macd_histogram_lag_1 macd_histogram_lag_3 macd_histogram_lag_6 macd_histogram_lag_12 momentum_score_lag_1 momentum_score_lag_3 momentum_score_lag_6 momentum_score_lag_12 adx_lag_1 adx_lag_3 adx_lag_6 adx_lag_12 rsi_change_3 rsi_change_6 body_size upper_shadow lower_shadow is_bullish bullish_streak bearish_streak volume_zscore volume_sma20_ratio volume_change_3 obv_change_12 dollar_volume dollar_volume_change rsi_oversold rsi_overbought rsi_neutral rsi_normalized stoch_diff stoch_oversold stoch_overbought macd_cross macd_cross_change mfi_oversold mfi_overbought mfi_normalized adx_strong adx_slope ema_alignment ema_alignment_change higher_high_12 lower_low_12 roc_6 roc_12 roc_24
feature_infos=[-1.3061799010604538:5.038529723625806] [-1.2122380002962714:5.0029391357709052] [-1.0577509273856418:5.2415665999375154] [-1.2938658997835466:5.0681231158817956] [-1.2242377295797302:5.3038792869060938] [-1.0419187930742499:5.5876206786436082] [-4.5466996562940825:2.6893644122533136] [-3.5117497512664295:5.1127966006979646] [-4.0792827982304374:2.4106374440611993] [-0.92297385575156876:2.1145854466591385] [-0.91414467317522163:2.0755838036398062] [-1.55524400349124:2.5351468679876472] [-2.0489487801869242:1.989468927289868] [-0.9640275665624084:1.0169693285465937] [-0.90998655307939769:1.042281244369555] [-8.6990726157803842:2.2652371981774184] [-0.93765986092458264:1.0436294352172053] [-1.5538881950077992:5.6650063774103909] [-1.2122380002962714:5.0029391357709052] [-1.1567793963029911:4.5222648743210199] [-1.0802070060526363:5.8788340495104112] [-1.824895190569892:1.7983529367973292] [-1.6375415345112783:5.0363099328751755] [-2.0395820004619734:7.2633756415024315] [-1.5848296802514821:1.6574749446406842] [-1.1950555825089118:5.0054888371406223] [-0.90735600536718009:1.0496447637640149] [-1.1700785986770601:1.3898628630688563] [-5.2233305334874585:4.6324774139765177] [-4.6088364446796222:2.634216021469546] [-5.4890101602060266:3.7665958652601823] [-5.1928590773986318:3.811709967969195] [-1.0350418915790274:9.0408047825018532] [-6.4591951600828068:5.780591005930142] [-1.824895190569892:1.7983529367973292] [-1.0742802729034013:6.3223424414891589] [-6.2263106939285056:5.9823041493449303] [-6.3687526852689844:6.1416566478980146] [-5.7275156422730715:4.4887317713195873] [-5.0594468689544758:4.1067055260076275] [-3.9320535168237805:3.6680833591915194] [-6.3413402550611808:5.8803119124407619] [-5.8564090498924806:4.3617504805028933] [-5.3316815582256734:3.9689776224371127] [-4.1604266559644181:3.5019421888352471] [-1.0794398461776751:5.5172880012966283] [-1.0251576302913674:1.1216037586137406] [-1.3529789512949359:5.2681464402358804] [-1.4306829805296004:1.5049561128337281] [-1.6001305759454458:4.8791656325824482] [-1.9504276518503467:1.925141254604944] [-3.8811346019725699:2.6209991102043415] [-0.94102930869817847:7.2125886886485491] [-2.0704066333744788:2.0017086281182763] [-2.1194803316090645:2.0465930138254711] [-1.9154141673556433:1.919979165701976] [-2.1235108540432357:2.0356361552180577] [-3.5104861209902798:5.1009602090774404] [-3.5434530655355747:5.1640185131927003] [-3.3821072213477126:5.0996306157957738] [-3.5102576881852459:5.170505301437573] [-1.2044617858644981:1.3910688374802849] [-1.2238102594843094:1.42017706894499] [-1.2249233598898526:1.3647466665756993] [-1.1782348209262987:1.4395068728420348] [-0.90815229217410876:2.0674189601179105] [-0.8706084369510535:2.1223070835414437] [-0.81842285682509175:2.1618388554232841] [-0.91561529752382598:2.1176768561297497] [-3.2353534917762774:3.143325161224277] [-2.637312334296066:2.2631435892049372] [-0.71597226277306392:8.6123058925305109] [-0.69918540154202025:8.6635491105683649] [-0.74355546498323744:19.881805416606486] [0:1] [0:8] [-1:7] [-1.680047429951834:3.7400391802467872] [-1.0460724122725635:12.358099322876624] [-0.91259058698840478:24.374936590043372] [-5.417403162165642:14.421386204116931] [-0.93054638861416594:18.614714467632034] [-0.79810757723213666:25.534243883849459] [0:1] [0:1] [-1:0] [-2.0489487801869246:1.9894689272898676] [-3.026539402340791:2.7704540193204035] [0:1] [0:1] [0:1] [-2:2] [0:1] [0:1] [-1.5848296802514823:1.6574749446406842] [-1:0] [-2.0195482410043208:2.2719052759224585] [0:1] [-2:2] [0:1] [0:1] [-5.7275156422730715:4.4887317713195873] [-5.0594468689544758:4.1067055260076275] [-3.9320535168237805:3.6680833591915194]
tree_sizes=2836 1723 2668 2657 1400 2549 1293 2673 2675 1933 1301 2672 1298 2776 1297 2649 1407 1512 2111

Tree=0
num_leaves=26
num_cat=0
split_feature=2 25 5 3 51 49 3 5 22 68 78 59 22 5 22 2 16 29 32 49 46 1 60 47 79
split_gain=49.8991 25.2669 29.9662 28.7841 42.4198 29.1877 23.3515 24.9217 28.414 27.2637 21.5113 20.4996 22.4956 18.2455 16.5044 14.629 12.1645 11.8784 8.84465 8.1943 4.92766 3.5639 2.97025 0.668135 0.100536
threshold=0.59353115838213566 -0.94984844255656486 -0.55359554125526944 -0.48470837009549578 0.33312673855106839 1.105755773194339 3.9860469235709375 3.3643077182007111 1.4386712763521345 0.61854085910555001 -0.58644135850713863 -0.02927548749585451 -0.35764930100931802 -0.72911818894426472 -0.27939480953263451 -0.78303549055560506 -0.66265755821854466 -0.31512099066446786 -0.24216311446013808 0.93454966473635992 0.012742544820789582 -0.43563925950833621 -0.2914337908234152 1.2857950339873851 0.83562681849150489
decision_type=2 2 2 2 2 2 2 2 2 2 2 2 2 2 2 2 2 2 2 2 2 2 2 2 2
left_child=1 23 13 14 10 -6 7 8 16 11 -5 18 -13 15 17 -3 -2 -4 -9 -10 -11 -15 -16 -1 -18
right_child=6 2 3 4 5 -7 -8 9 19 20 -12 12 -14 21 22 -17 24 -19 -20 -21 -22 -23 -24 -25 -26
leaf_value=-0.11949223017085589 -0.14648062402900686 -0.11573274743280033 -0.1196747828908401 -0.1277032139333513 -0.12075809365246522 -0.16137808172798357 -0.18264845940133723 -0.18237711149802088 -0.12987213350290686 -0.10366168376530581 -0.15559101963287192 -0.10379553667665001 -0.16051913984455043 -0.1794396453535228 -0.12337791087843301 -0.1593040195104958 -0.18279424529979332 -0.16148353635285537 -0.15112843560031258 -0.15755592867297713 -0.1315008892649594 -0.15830673040312615 -0.1059066679595268 -0.10682779304641585 -0.17407487223528523
leaf_weight=6.2169015407562238 4.9735212326049831 4.9735212326049805 4.9735212326049805 12.931155204772947 40.036845922470093 8.454986095428465 12.931155204772947 7.957633972167967 8.9523382186889666 6.2169015407562238 72.116057872772217 5.4708733558654785 5.4708733558654785 12.433803081512453 6.9629297256469771 7.7089579105377215 19.396732807159427 5.7195494174957293 6.9629297256469744 7.9576339721679679 4.9735212326049805 4.9735212326049796 14.174535512924191 6.2169015407562256 4.9735212326049796
leaf_count=25 20 20 20 52 161 34 52 32 36 25 290 22 22 50 28 31 78 23 28 32 20 20 57 25 20
internal_value=-0.145801 -0.14029 -0.142069 -0.138719 -0.142817 -0.127899 -0.157701 -0.153765 -0.163549 -0.141591 -0.151311 -0.152824 -0.132215 -0.160374 -0.121651 -0.142272 -0.175422 -0.142161 -0.16806 -0.14301 -0.115621 -0.173622 -0.111435 -0.11274 -0.181219
internal_weight=304.131 207.893 195.459 165.37 133.539 48.4918 96.2376 83.3065 46.2537 37.0527 85.0472 25.8623 10.9417 30.0898 31.8305 12.6825 29.3438 10.6931 14.9206 16.91 11.1904 17.4073 21.1375 12.4338 24.3703
internal_count=1223 836 786 665 537 195 387 335 186 149 342 104 44 121 128 51 118 43 60 68 45 70 85 50 98
is_linear=0
shrinkage=1


Tree=1
num_leaves=15
num_cat=0
split_feature=0 25 60 68 15 60 2 5 0 19 1 96 87 96
split_gain=48.3092 30.5962 21.5838 25.5791 24.3538 19.2977 18.3184 15.7597 15.6453 18.3389 10.4284 3.08296 2.76211 0.46148
threshold=3.9294803444963082 -0.94984844255656486 0.13954310163263731 -0.64313821112400182 0.84151403299960703 0.84600299849110994 -0.54593012535077612 -0.38188864679140183 3.8380946600778083 0.071983655632331847 -0.59095015047506039 -0.41490452649653559 -0.17823231965931349 -0.10033389721255058
decision_type=2 2 2 2 2 2 2 2 2 2 2 2 2 2
left_child=1 11 3 12 6 -6 10 -8 9 -5 -4 -1 -3 -7
right_child=-2 2 4 8 5 13 7 -9 -10 -11 -12 -13 -14 -15
leaf_value=0.041485118607956915 -0.035020190921696899 -0.016398859219834746 0.0058124891359093989 0.0029839690680532548 0.01034269049730703 -0.023997644714817096 0.033044903742359015 0.010439450891910101 0.028888602498655516 -0.011760401813169631 -0.025722223421586917 0.019818474504148417 -0.036294369210507986 -0.036078818462456523
leaf_weight=6.9781045168638229 14.880753159523008 4.9720651805400857 9.2023638933897036 79.331080764532089 7.464764371514323 4.965462490916253 15.191081941127775 68.14728581905365 6.2270582616329184 58.397036656737328 7.4524023681879035 5.4818407893180829 9.4321224540471995 5.9607198685407612
leaf_count=28 60 20 37 319 30 20 61 274 25 235 30 22 38 24
internal_value=0 0.00181315 0.000420063 -0.00440042 0.00688345 -0.0141682 0.0107856 0.0146187 -0.00183366 -0.00325716 -0.00824808 0.0323456 -0.0297251 -0.0310373
internal_weight=304.084 289.203 276.743 158.359 118.384 18.3909 99.9931 83.3384 143.955 137.728 16.6548 12.4599 14.4042 10.9262
internal_count=1223 1163 1113 637 476 74 402 335 579 554 67 50 58 44
is_linear=0
shrinkage=0.02


Tree=2
num_leaves=24
num_cat=0
split_feature=2 67 67 25 51 49 39 19 25 52 51 78 2 47 14 19 14 77 16 80 82 96 49
split_gain=46.3643 24.7799 29.1789 23.2125 24.8437 31.2499 22.7665 14.9916 23.8122 27.2316 21.6859 14.8318 16.2174 13.5835 13.2695 18.5196 12.0533 10.4539 10.3057 6.74297 4.14475 2.94325 1.02439
threshold=0.59353115838213566 1.0540905744103453 1.6938107625341814 -0.94984844255656486 0.33312673855106839 1.105755773194339 -0.91439043283767896 3.5165124819988187 3.4657746059481931 0.61482132473831064 0.20651452712286383 -0.74681027544320056 0.035694675373097055 0.5306735052090924 -0.2049131336045982 0.0081242308822464439 0.51403527961898499 -0.28015655060182559 -0.62404904501746783 -0.5233777293386519 -0.45166538883812085 -0.41490452649653559 0.58201064460630081
decision_type=2 2 2 2 2 2 2 2 2 2 2 2 2 2 2 2 2 2 2 2 2 2 2
left_child=3 7 17 21 6 14 13 8 18 10 -10 -8 -13 -5 15 -6 -7 -3 -2 -16 -20 -1 -19
right_child=1 2 -4 4 5 16 11 -9 9 -11 -12 12 -14 -15 19 -17 -18 22 20 -21 -22 -23 -24
leaf_value=0.040590709236095562 -0.0030611647832153479 -0.00050099624853218092 -0.021631825054528365 0.0046441051965113531 -0.024791399580573026 0.0038819950952629595 0.027306458982526177 -0.034651236083392004 -0.033529409226276743 0.038375757246575826 0.011174375738518037 -0.0023145232550513067 -0.021804709718203658 0.041624254121130619 0.019435652234241228 0.02456161073259568 -0.032676801431759016 0.025719484017896001 -0.01309232327058347 0.037222254135996287 -0.034248077771313855 0.019409176264596848 0.041690311572589803
leaf_weight=6.9912873059511185 7.7023299336433402 4.9680445790290824 9.4322866648435575 9.4503851383924502 5.2176371216773969 8.2046141475439054 5.4765232652425757 15.827850624918936 8.1784046739339882 6.2266641557216635 8.9584186375141126 89.256713971495628 21.124101161956787 6.9739223569631568 20.183045998215672 6.9775456488132477 6.1999192237853995 4.9777747392654437 5.2082760185003272 16.444719314575199 19.329218775033954 5.4875408709049207 5.2261776775121689
leaf_count=28 31 20 38 38 21 33 22 64 33 25 36 359 85 28 81 28 25 20 21 66 78 22 21
internal_value=0 -0.0114876 0.00574426 0.00530636 0.0035985 0.0139028 -0.00131838 -0.0174507 -0.0124652 0.00283175 -0.0101148 -0.00446137 -0.00607892 0.0206241 0.0215451 0.00325365 -0.0118324 0.0229249 -0.0235869 0.0275553 -0.0299101 0.0316635 0.0344186
internal_weight=304.023 96.0354 24.6043 207.988 195.509 63.2275 132.282 71.4312 55.6033 23.3635 17.1368 115.857 110.381 16.4243 48.8229 12.1952 14.4045 15.172 32.2398 36.6278 24.5375 12.4788 10.204
internal_count=1223 387 99 836 786 254 532 288 224 94 69 466 444 66 196 49 58 61 130 147 99 50 41
is_linear=0
shrinkage=0.02


Tree=3
num_leaves=24
num_cat=0
split_feature=2 67 67 28 51 49 25 2 47 49 19 17 25 2 77 67 52 16 67 77 7 49 6
split_gain=44.5942 23.8732 28.0376 23.5762 28.5218 34.7781 22.3306 16.0103 24.3898 18.393 14.5004 22.9647 23.6617 16.9429 13.1918 15.9172 12.6036 11.0498 10.4021 10.0228 3.24469 3.07671 0.987544
threshold=0.59353115838213566 1.0540905744103453 1.6938107625341814 -1.2405064334189384 0.33312673855106839 1.1569297654650974 -0.94984844255656486 0.035694675373097055 -0.68411121870220248 -0.20641336652217285 3.5165124819988187 3.7597418598006223 3.6724774724172304 4.0621004047008524 0.3411092620451423 0.12822987328718013 -0.40103203987457159 -0.62404904501746783 0.46821240609620768 -0.28015655060182559 -1.0914528694929 0.84981059304881856 -1.4676945009954048
decision_type=2 2 2 2 2 2 2 2 2 2 2 2 2 2 2 2 2 2 2 2 2 2 2
left_child=3 10 19 20 6 14 -5 8 -8 -9 11 17 -13 -14 16 -16 -6 -2 -7 -3 -1 -19 -21
right_child=1 2 -4 4 5 18 7 9 -10 -11 -12 12 13 -15 15 -17 -18 21 -20 22 -22 -23 -24
leaf_value=0.041276906393699811 -0.0018856194850975486 -0.00049119352205237519 -0.02124457596985008 0.032019541325069074 0.0020604094921540003 -0.030422303259377267 -0.026739406591907672 0.013353579795838993 0.0033635149059527253 -0.027942043982669348 -0.034094849250277046 0.026920754057504187 -0.031234976716134313 0.012131524210460251 0.02038837761914896 -0.019651191409423917 0.034430398045040479 -0.034569731138987189 0.0064668092717969361 0.040818687887581265 0.018867278135955647 -0.017189095602208923 0.025137212802190657
leaf_weight=6.9794075787067413 7.4521916955709484 4.9678520113229743 9.4141393601894361 7.2445963472127906 5.9735209494829169 7.4271828532218915 12.166932567954062 5.4681250154972103 87.790441557765007 18.60691237449646 15.766657888889311 9.4700233638286608 8.663630545139311 5.965656489133834 12.221094563603403 5.7273996919393531 28.197768792510033 17.531445637345318 4.97063048183918 5.2377585619688025 5.2289680391550046 6.4357274770736685 4.9857633411884335
leaf_count=28 30 20 38 29 24 30 49 22 353 75 64 38 35 24 49 23 113 71 20 21 21 26 20
internal_value=0 -0.0112768 0.00563069 0.00520171 0.00350051 0.0143816 -0.00183878 -0.00385673 -0.000303723 -0.0184635 -0.0171405 -0.0122371 0.00237553 -0.0134525 0.0215533 0.00746277 0.0288526 -0.0234807 -0.015539 0.0224462 0.0320724 -0.0300766 0.0336825
internal_weight=303.894 95.8908 24.6055 208.003 195.795 64.5176 131.277 124.032 99.9574 24.075 71.2853 55.5187 24.0993 14.6293 52.1198 17.9485 34.1713 31.4194 12.3978 15.1914 12.2084 23.9672 10.2235
internal_count=1223 387 99 836 787 259 528 499 402 97 288 224 97 59 209 72 137 127 50 61 49 97 41
is_linear=0
shrinkage=0.02


Tree=4
num_leaves=12
num_cat=0
split_feature=0 22 25 5 3 51 5 22 2 82 96
split_gain=43.8492 28.9998 25.1223 21.0565 35.1076 26.8453 18.4001 14.916 13.7894 3.10363 2.79228
threshold=3.9294803444963082 -1.164836628890759 -0.94984844255656486 -0.55854963094062759 -0.48470837009549578 0.29035270059280344 -0.72911818894426472 -0.27939480953263451 -0.78303549055560506 0.14356610375295609 -0.41490452649653559
decision_type=2 2 2 2 2 2 2 2 2 2 2
left_child=1 -1 10 6 7 -6 8 -5 -4 -8 -3
right_child=-2 2 3 4 5 -7 9 -9 -10 -11 -12
leaf_value=-0.03523941291616129 -0.03354910218459739 0.039111340801238841 0.028973363066174419 0.0032046978984654208 -0.0050065210035437095 0.0099586006751415102 -0.035904967979497847 0.032284225177582337 -0.013299987197662884 -0.016613297384609309 0.018502320026684643
leaf_weight=8.1421841681003553 14.723114296793936 6.9998921453952789 4.988040953874588 10.703032076358793 131.99747681617737 75.149313226342201 9.903449162840845 21.70612558722496 7.7024997472763079 6.1932602077722541 5.4960288256406766
leaf_count=33 60 28 20 43 532 302 40 87 31 25 22
internal_value=0 0.00172041 0.00281124 0.00150707 0.00345764 0.000415104 -0.0146113 0.0227817 0.00325588 -0.0287543 0.0304246
internal_weight=303.704 288.981 280.839 268.343 239.556 207.147 28.7873 32.4092 12.6905 16.0967 12.4959
internal_count=1223 1163 1130 1080 964 834 116 130 51 65 50
is_linear=0
shrinkage=0.02


Tree=5
num_leaves=23
num_cat=0
split_feature=2 67 67 28 25 60 96 2 68 25 23 17 72 63 16 77 60 22 60 7 96 66
split_gain=41.8239 22.7719 26.9107 22.3804 20.2263 22.7673 28.1896 18.2279 19.5103 11.855 25.5813 23.9689 16.055 10.3119 9.75918 9.65419 6.0012 4.45555 4.45549 3.13232 1.8578 0.947784
threshold=0.59353115838213566 1.0540905744103453 1.6938107625341814 -1.2405064334189384 -0.94984844255656486 0.13954310163263731 0.12554752286607401 0.27814850742238789 -0.54729348882549911 3.9107530484409847 5.9121536416126874 4.1104581485554741 -0.19770246102106351 -0.55752038105123081 -0.62404904501746783 -0.28015655060182559 -0.18746418947023469 1.4386712763521345 -0.022390536957810018 -1.0914528694929 -0.66544637447229638 1.4284849983835828
decision_type=2 2 2 2 2 2 2 2 2 2 2 2 2 2 2 2 2 2 2 2 2 2
left_child=3 9 15 19 20 6 13 8 -7 10 14 -12 -13 -6 18 -3 -8 -16 -2 -1 -5 -17
right_child=1 2 -4 4 5 7 16 -9 -10 -11 11 12 -14 -15 17 21 -18 -19 -20 -21 -22 -23
leaf_value=0.040225879205935851 -0.01961322674413906 -0.00048743326538316017 -0.020808193126445204 0.038175535286149816 -0.013604949427010619 0.027222489789029247 -0.027857452419175754 0.03625054053304605 0.0012626189200436349 -0.03443750903733768 0.02950320825119189 -0.028335257758623528 0.015210742467137757 0.0061219232153253735 -0.034243870166284419 0.024645954626173579 -0.0094523843428277292 -0.012488982872649195 0.0067712686733626126 0.018230849985680541 0.01949753713516349 0.040038618310264264
leaf_weight=6.990894079208374 4.9520978331565857 4.9678964912891379 9.3906875103712064 5.7474409937858582 12.910115435719488 14.216084629297255 18.346615850925449 8.9858100563287717 61.672928705811501 12.465799897909163 8.7343925237655657 9.0851009339094144 5.2197283506393424 56.430309072136879 20.413217708468441 4.9899585992097872 12.403396576642988 5.1922187060117713 4.9657898992300016 5.235365763306616 4.9981122165918332 5.2449493259191513
leaf_count=28 20 20 38 23 52 57 74 36 248 51 35 37 21 227 83 20 50 21 20 21 20 21
internal_value=0 -0.0109408 0.00556815 0.00503384 0.00337428 0.00180526 -0.00464107 0.00942727 0.00618136 -0.0166849 -0.0128197 0.00351342 -0.0123115 0.00240598 -0.023449 0.0220209 -0.0205531 -0.029976 -0.0062674 0.031194 0.0299321 0.0330386
internal_weight=303.559 95.6218 24.5935 207.937 195.711 184.965 100.09 84.8748 75.889 71.0283 58.5625 23.0392 14.3048 69.3404 35.5233 15.2028 30.75 25.6054 9.91789 12.2263 10.7456 10.2349
internal_count=1223 387 99 836 787 744 403 341 305 288 237 93 58 279 144 61 124 104 40 49 43 41
is_linear=0
shrinkage=0.02


Tree=6
num_leaves=11
num_cat=0
split_feature=0 22 25 49 3 5 23 7 68 96
split_gain=41.0944 27.4138 23.2218 22.8801 24.3237 34.4119 21.4503 15.6727 3.13024 2.62435
threshold=3.9294803444963082 -1.164836628890759 -0.94984844255656486 -0.60236302858355428 0.081715953685242579 -0.55359554125526944 6.0040062181108604 0.30536005691373308 0.019557049665507684 -0.41490452649653559
decision_type=2 2 2 2 2 2 2 2 2 2
left_child=1 -1 9 7 5 -5 -6 8 -4 -3
right_child=-2 2 3 4 6 -7 -8 -9 -10 -11
leaf_value=-0.034403811733089137 -0.032638161069669082 0.03770825390880897 0.040462554152216008 -0.013913975735587929 -0.010692929203350507 0.01011477927064887 0.019024071361398817 -0.0057848968679634983 0.019697035561605063 0.017714304796062542
leaf_weight=8.0847405046224576 14.583873167634009 6.9896556735038757 8.9880815744400042 29.967774882912636 93.02111092209816 114.282969430089 10.713004097342489 5.7171398103237143 5.4770426303148261 5.4991734027862531
leaf_count=33 60 28 36 121 376 459 43 23 22 22
internal_value=0 0.00165984 0.00271772 0.00146307 -0.000199262 0.00510282 -0.00758932 0.0218874 0.0329265 0.0292739
internal_weight=303.325 288.741 280.656 268.167 247.985 144.251 103.734 20.1823 14.4651 12.4888
internal_count=1223 1163 1130 1080 999 580 419 81 58 50
is_linear=0
shrinkage=0.02


Tree=7
num_leaves=24
num_cat=0
split_feature=0 3 51 15 23 30 5 5 52 23 78 81 60 96 11 15 49 60 40 69 21 72 78
split_gain=39.6942 24.2625 29.1302 35.7175 23.354 25.1868 18.5494 37.1525 18.1861 17.3877 21.2226 16.0627 14.4404 13.8339 12.5317 11.4588 10.3147 20.1142 9.86739 3.41597 1.14848 0.627199 0.438581
threshold=3.9294803444963082 -0.46811775462737304 0.29418516306240944 0.9329622209294216 -0.18716976102347602 -0.12004843530577607 -0.55359554125526944 -0.72911818894426472 0.55802475990147749 5.8490789736928646 -0.55030335740401559 0.10568891566073779 -0.0057133153487627895 -0.5666991378440196 -0.35633270547086549 1.4674688500682642 0.34196147300668428 0.22518868321230259 -0.47206754939297668 0.77683876390690043 0.595181956202816 1.2454074750385014 0.090234924041234024
decision_type=2 2 2 2 2 2 2 2 2 2 2 2 2 2 2 2 2 2 2 2 2 2 2
left_child=1 6 8 4 5 -4 7 13 11 10 -10 14 -6 -1 -3 -13 17 -8 -15 21 -5 -18 -9
right_child=-2 2 3 20 12 -7 16 22 9 -11 -12 15 -14 18 -16 -17 19 -19 -20 -21 -22 -23 -24
leaf_value=0.038198250910205483 -0.032170832198593929 -0.029717551656513339 0.028307540642072616 -0.019012993314917289 0.00528199408137533 -0.018463848338248389 -0.010502249644503114 -0.034774849429803197 0.031616649367307681 0.036372592663656618 -0.011003754303204803 -0.0065025383744981681 0.028413381514389359 0.0271408806756103 -0.0098164862264668966 0.024994016975706263 0.040072454037782396 0.032807729423736588 -0.0069608381797304636 0.015832724385367543 -0.035005315154292498 0.027614847209703992 -0.022882562421926173
leaf_weight=7.227673053741456 14.502081528306006 24.106346324086189 6.4865894764661816 4.9184243083000165 16.645709425210953 15.13417638838291 8.9592896103858966 5.6668427884578687 5.9758477360010174 5.9964078217744818 20.100153729319572 49.764928698539734 32.197985157370567 4.9971227496862403 27.711206927895546 4.9762070178985587 9.9880845695734042 7.9892380237579337 9.9360054433345795 4.9918323308229438 4.9336511641740799 4.9946869015693656 4.9330274760723114
leaf_count=29 60 98 26 20 67 61 36 23 24 24 81 201 129 20 112 20 40 32 40 20 20 20 20
internal_value=0 0.00162783 -0.00163653 0.00792989 0.012943 -0.00427385 0.0119008 0.000872655 -0.00719502 0.00595425 -0.00107654 -0.0111734 0.0205981 0.0156502 -0.0191527 -0.00356254 0.0216029 0.00986869 0.00442233 0.0313611 -0.0274937 0.0362628 -0.0296929
internal_weight=303.134 288.631 218.948 80.3165 70.4645 21.6208 69.6838 32.7607 138.631 32.0724 26.076 106.559 48.8437 22.1608 51.8176 54.7411 36.9231 16.9485 14.9331 19.9746 9.85208 14.9828 10.5999
internal_count=1223 1163 883 323 283 87 280 132 560 129 105 431 196 89 210 221 148 68 60 80 40 60 43
is_linear=0
shrinkage=0.02


Tree=8
num_leaves=24
num_cat=0
split_feature=0 3 11 81 5 2 37 5 5 96 47 34 40 69 38 23 63 26 40 23 2 66 0
split_gain=38.3585 23.332 19.4099 23.6688 22.8528 21.8997 18.8044 17.8112 35.8066 13.3189 13.2736 9.59173 9.4859 7.69595 11.0098 6.33404 6.1501 7.11361 1.73551 1.25854 0.652107 0.478902 0.179865
threshold=3.9294803444963082 -0.46811775462737304 -0.41271099615674539 -0.091073997803301929 -0.47083421255943214 -0.41647966964253075 0.38403247455857187 -0.55359554125526944 -0.72911818894426472 -0.5666991378440196 -0.19668309947094439 -1.0000000180025095e-35 -0.47206754939297668 -1.0872234796444182 -0.38140445892449265 -0.040072336524808135 -0.58704107089691238 -0.18157873961648088 -0.40136128782184283 -0.24681225969402357 -0.55633742465395442 0.023338574060907741 3.6075842249875749
decision_type=2 2 2 2 2 2 2 2 2 2 2 2 2 2 2 2 2 2 2 2 2 2 2
left_child=1 7 3 15 11 19 -7 8 9 -1 -9 -4 -11 -5 -15 -3 17 -12 -18 -6 -13 -10 -17
right_child=-2 2 4 13 5 6 -8 10 21 12 16 20 -14 14 -16 22 18 -19 -20 -21 -22 -23 -24
leaf_value=0.037497981975451324 -0.03172366366819257 -0.010682139754811701 0.0025913489310350857 -0.024138528695195182 0.041420238832671499 0.0090743177974287447 -0.007099727720515989 -0.0010013259596724198 -0.022300967174324421 0.02661234901770021 0.030990997649243793 -0.022876943120564399 -0.0068264266332852984 0.010442100954191871 -0.010640352636302733 -0.034711487885158307 0.025226338046223314 -0.0022222043528204818 0.039758405418358386 0.02451027045415869 -0.036011966778592211 -0.034393896069026243 -0.025457242209706063
leaf_weight=7.2173595279455194 14.414653837680815 8.4213377982378024 4.9620507359504709 5.1927072107791892 4.9798616468906403 75.004879727959633 46.381665259599686 8.2154334783554059 4.9110456556081754 4.9964301437139502 4.9957012832164764 4.923043653368949 9.9310307800769806 23.308019384741783 17.0413518846035 12.494409665465357 7.2364731431007412 4.9885977208614332 11.488494768738748 5.2399202734231931 5.955451846122739 5.65018330514431 4.8631043136119834
leaf_count=29 60 34 20 21 20 302 187 33 20 20 20 20 40 94 69 51 29 20 46 21 24 23 20
internal_value=0 0.00159723 -0.00160515 -0.0101688 0.00252765 0.00527545 0.00287701 0.0116751 0.00085398 0.0153536 0.0211777 -0.020066 0.00433552 -0.00143988 0.0014843 -0.0254472 0.0275753 0.0143404 0.0344124 0.0332654 -0.0305124 -0.0292201 -0.0323939
internal_weight=302.813 288.399 218.768 71.3209 147.447 131.606 121.387 69.6307 32.706 22.1448 36.9247 15.8405 14.9275 45.5421 40.3494 25.7789 28.7093 9.9843 18.725 10.2198 10.8785 10.5612 17.3575
internal_count=1223 1163 883 289 594 530 489 280 132 89 148 64 60 184 163 105 115 40 75 41 44 43 71
is_linear=0
shrinkage=0.02


Tree=9
num_leaves=17
num_cat=0
split_feature=0 25 51 15 23 59 23 5 47 67 67 6 64 2 96 21
split_gain=37.0789 22.375 21.0446 33.9604 17.1043 18.5357 15.1978 32.3525 44.9644 23.2171 26.0511 14.7343 10.7513 8.89124 2.44007 1.13682
threshold=3.9294803444963082 -0.94984844255656486 0.29035270059280344 0.9329622209294216 -0.15252644499914664 -0.1851702206199953 -0.28970319006003858 -0.55359554125526944 -0.68411121870220248 0.80076688788246353 1.6938107625341814 0.37045984313149954 -0.50761233121549343 -0.77186239359006392 -0.41490452649653559 0.595181956202816
decision_type=2 2 2 2 2 2 2 2 2 2 2 2 2 2 2 2
left_child=1 14 6 4 11 -6 7 13 -9 12 -11 -4 -8 -3 -1 -5
right_child=-2 2 3 15 5 -7 9 8 -10 10 -12 -13 -14 -15 -16 -17
leaf_value=0.035869797054011866 -0.031295357482472363 -0.0011209549434269114 0.013608166707321684 -0.018399574893304276 -0.0020699522188402856 0.027220714125653668 -0.028134032881423514 -0.030810477461479246 0.017786885626284922 0.021540048332058536 -0.02346405137521464 -0.012079544950956212 -0.009863222381480255 -0.031372894637933343 0.016565610314029974 -0.034297662121679062
leaf_weight=6.9412919729948044 14.321990743279455 6.190686613321307 19.428216636180878 4.8921069204807264 11.189023479819296 35.922057405114174 16.226192027330399 8.8680936098098737 49.829599320888519 17.665615677833561 7.1161537766456595 16.324149459600449 66.165860652923584 11.055050015449522 5.4945623874664289 4.9072280675172806
leaf_count=28 60 25 78 20 45 144 66 36 200 71 29 66 268 45 22 20
internal_value=0 0.00156558 0.000370215 0.00813836 0.012325 0.0202321 -0.00355208 0.00327133 0.0103708 -0.00840433 0.00849425 0.00182267 -0.0135154 -0.0206978 0.0277003 -0.026829
internal_weight=302.538 288.216 275.78 92.6628 82.8634 47.1111 183.117 75.9434 58.6977 107.174 24.7818 35.7524 82.3921 17.2457 12.4359 9.79933
internal_count=1223 1163 1113 373 333 189 740 306 236 434 100 144 334 70 50 40
is_linear=0
shrinkage=0.02


Tree=10
num_leaves=11
num_cat=0
split_feature=0 22 25 60 59 59 51 44 17 47
split_gain=35.8543 25.2006 19.9121 17.8297 14.3651 15.5666 13.5047 11.2374 5.42031 0.628101
threshold=3.9294803444963082 -1.164836628890759 -0.94984844255656486 -0.59514481059696711 1.9161401629097012 -0.32530203989837397 0.40983629344725564 -0.1047116548376871 -0.77844698397801038 1.2857950339873851
decision_type=2 2 2 2 2 2 2 2 2 2
left_child=1 -1 9 6 5 -5 7 -4 -6 -3
right_child=-2 2 3 4 8 -7 -8 -9 -10 -11
leaf_value=-0.033269356258841525 -0.030884717725041533 0.020997537993587233 -0.0068246132926694349 -0.0040331525560730799 -0.0037417199105542467 0.008875908288386667 0.01726842213180018 -0.029894320295711686 -0.033882185395924837 0.032710176147964731
leaf_weight=7.9807973504066458 14.224473133683203 6.2154273390769941 46.610182002186775 50.255602642893791 4.9479581266641617 143.03975190222263 7.4652293771505347 10.368860676884649 4.8896927088499051 6.193075105547905
leaf_count=33 60 25 189 203 20 576 30 42 20 25
internal_value=0 0.00153426 0.00254497 0.00138359 0.00429779 0.00550894 -0.00776365 -0.0111028 -0.0191141 0.027218
internal_weight=302.191 287.967 279.986 267.577 203.133 193.295 64.4443 56.979 9.83765 12.4085
internal_count=1223 1163 1130 1080 819 779 261 231 40 50
is_linear=0
shrinkage=0.02


Tree=11
num_leaves=24
num_cat=0
split_feature=2 96 28 29 59 2 0 6 26 2 19 49 2 68 60 45 32 67 27 59 56 32 31
split_gain=35.0552 21.0295 20.3749 18.3838 17.8784 24.4868 18.5598 17.9459 17.7266 15.177 33.3771 30.782 14.443 18.3409 10.5323 8.41422 6.88085 6.78001 3.51916 3.26744 3.07537 1.07996 0.501189
threshold=0.59353115838213566 -0.91782612403207098 -1.2405064334189384 -1.5682749201559452 -0.37513280147959899 0.27814850742238789 -0.5191670036512922 0.17876413891492113 0.037499561054124823 3.2142388667900366 3.4752030111089485 -0.85902881547528442 0.19056519730094357 -0.60079219730663891 -0.53261127542691966 0.85138902753817247 1.3579822553990006 0.70686402725337494 0.7405775936956881 -0.3135198061814502 -0.15037762901962398 0.30522533195311657 -0.19307840651177152
decision_type=2 2 2 2 2 2 2 2 2 2 2 2 2 2 2 2 2 2 2 2 2 2 2
left_child=2 -2 19 16 8 6 14 -8 12 15 11 -11 13 -4 -6 21 -3 -12 -7 -1 -10 -5 -22
right_child=1 3 4 9 5 18 7 -9 20 10 17 -13 -14 -15 -16 -17 -18 -19 -20 -21 22 -23 -24
leaf_value=0.016459979215543638 0.022460305380336734 0.028716118501716192 -0.025000014710325768 -0.034208545366351498 -0.0011269034007282946 0.037578591589273271 -0.011696578434347252 0.0064431789469013871 -0.011277303879666979 -0.032313763235396385 -0.029868645166459273 0.025449793123433675 -0.025727333302855759 0.013740309255994603 0.023329364025233432 -0.0071858427473422805 -0.0033104097320414299 -0.0027812582952226445 0.015757562841042971 0.03874583289967188 -0.035212063039128327 -0.022925715495065772 -0.022991131034773078
leaf_weight=5.2327578514814377 7.1980640590190879 4.9753492176532728 5.8886957168579128 19.711635693907741 9.6323860734701139 10.233200639486311 36.473066166043282 53.899980872869492 5.9368428885936764 4.7988135218620327 18.377253428101543 14.700731813907622 6.6322611570358267 26.078168824315071 24.56896410882473 7.6430020630359641 5.4485230296850204 4.8568383753299704 4.9869683086872092 6.9803699851036054 5.9245592355728158 6.8628520667552939 4.9268307536840412
leaf_count=21 29 20 24 81 39 41 147 217 24 20 77 59 27 105 99 31 22 20 20 28 24 28 20
internal_value=0 -0.0100874 0.00459895 -0.0128142 0.00301179 0.00682772 0.00387165 -0.000860457 -0.00657832 -0.0162009 -0.00815481 0.0110399 0.000846932 0.00648578 0.0164 -0.0261381 0.0119135 -0.0243282 0.0307089 0.029571 -0.0236726 -0.0314666 -0.0301067
internal_weight=301.968 94.5731 207.395 87.375 195.182 139.795 124.574 90.373 55.3874 76.9511 42.7336 19.4995 38.5991 31.9669 34.2014 34.2175 10.4239 23.2341 15.2202 12.2131 16.7882 26.5745 10.8514
internal_count=1223 387 836 358 787 563 502 364 224 316 176 79 156 129 138 140 42 97 61 49 68 109 44
is_linear=0
shrinkage=0.02


Tree=12
num_leaves=11
num_cat=0
split_feature=0 22 5 5 3 22 71 22 42 96
split_gain=33.803 23.7291 18.4278 22.852 31.9007 21.8452 15.1271 13.9544 5.50849 1.61573
threshold=3.9294803444963082 -1.164836628890759 -0.8190498430881058 -0.55854963094062759 -0.48470837009549578 -0.43468480417727301 0.64511517748099212 -0.27939480953263451 -0.34619500255839702 -0.41490452649653559
decision_type=2 2 2 2 2 2 2 2 2 2
left_child=1 -1 9 6 7 -6 8 -5 -4 -3
right_child=-2 2 3 4 5 -7 -8 -9 -10 -11
leaf_value=-0.032486227466765695 -0.030196399715762788 0.034630147724643512 -0.010205098684251622 0.0021441902725602606 0.016794518188140335 -0.0022200947167465295 0.007987291088652166 0.029960701405687375 -0.033080897111199284 0.018444867025509938
leaf_weight=7.8906882405281058 14.037503212690352 5.6569387465715408 6.8881378471851411 10.707708716392515 27.844530701637268 178.52142296731472 7.4242832064628592 23.184575915336609 12.723807603120802 6.7273273169994336
leaf_count=33 60 23 28 43 112 722 30 93 52 27
internal_value=0 0.00148024 0.00245697 0.00133928 0.00330987 0.000342712 -0.0160464 0.0212635 -0.0252404 0.0262164
internal_weight=301.607 287.569 279.679 267.294 240.258 206.366 27.0362 33.8923 19.6119 12.3843
internal_count=1223 1163 1130 1080 970 834 110 136 80 50
is_linear=0
shrinkage=0.02


Tree=13
num_leaves=25
num_cat=0
split_feature=2 96 28 51 49 2 22 29 20 29 2 19 22 86 14 0 99 96 68 22 0 79 14 38
split_gain=32.9651 20.1607 19.375 23.9935 29.7488 17.7507 18.1204 17.6229 17.1771 18.5157 14.9061 31.7409 29.1066 14.1492 10.9295 17.0098 10.2443 8.19123 6.68166 6.23865 4.80941 4.47987 3.67947 2.57305
threshold=0.59353115838213566 -0.91782612403207098 -1.2405064334189384 0.33312673855106839 1.1569297654650974 0.035694675373097055 -0.1418852880244125 -1.5682749201559452 -0.031587496775068946 -0.26622159948629193 3.2142388667900366 3.4752030111089485 -0.71096037781886989 0.7990569107426585 -0.2049131336045982 -0.14443014573056975 1.0000000180025095e-35 -0.073356218816306468 0.63527947180970634 1.8389832531191423 0.087966579559725325 1.2704971123738036 -0.69225219269045835 -1.8312331660502073
decision_type=2 2 2 2 2 2 2 2 2 2 2 2 2 2 2 2 2 2 2 2 2 2 2 2
left_child=2 -2 23 5 14 8 -7 22 9 -4 19 12 -12 -10 15 -5 -16 -6 -13 21 -8 -9 -3 -1
right_child=1 7 3 4 17 6 20 10 13 -11 11 18 -14 -15 16 -17 -18 -19 -20 -21 -22 -23 -24 -25
leaf_value=0.037426875349952808 0.022036874848352508 -0.00044017882087912146 0.0095796140449474574 -0.024304739078707182 0.0016298212905962862 0.014944804641372005 -0.013155377522736525 -0.03303844453886183 0.01322045271987419 -0.015477043336219971 -0.031587872473755198 -0.02924140404128954 0.024839579605871104 -0.016638527482927087 0.030318095266165367 0.02382007958666094 0.006817827363355471 -0.030585913296463003 -0.0022759896732206793 -0.0048932147208897636 -0.034844924807127926 -0.011509613526429992 0.022860021806371259 0.017443491512675668
leaf_weight=6.715427502989769 7.2033476382493964 4.9517824649810791 17.894946128129959 5.1848116368055344 5.9662355184555054 5.2165588438510921 7.1506747007370022 23.737213909626011 47.793613657355309 33.846441730856895 4.7386140376329449 18.179810285568241 14.701713591814039 7.1756339818239203 30.138696700334549 6.4957961440086347 10.238099470734594 6.3279523402452451 4.8289113491773596 5.1759364008903495 11.533220171928404 5.1507874131202689 5.473234608769415 5.4838038980960828
leaf_count=27 29 20 72 21 24 21 29 98 193 137 20 77 59 29 121 26 41 26 20 21 47 21 22 22
internal_value=0 -0.00981088 0.0044558 0.00290694 0.0128967 -0.00200576 -0.0175534 -0.0124949 0.00147095 -0.00677077 -0.0158291 -0.00782435 0.0108917 0.00926324 0.0195165 0.00226359 0.0244403 -0.0149036 -0.023703 -0.0256936 -0.0267646 -0.0293218 0.0117036 0.0288214
internal_weight=301.303 94.1414 207.162 194.963 64.3516 130.611 23.9005 86.938 106.711 51.7414 76.513 42.449 19.4403 54.9692 52.0574 11.6806 40.3768 12.2942 23.0087 34.0639 18.6839 28.888 10.425 12.1992
internal_count=1223 387 836 787 259 528 97 358 431 209 316 176 79 222 209 47 162 50 97 140 76 119 42 49
is_linear=0
shrinkage=0.02


Tree=14
num_leaves=11
num_cat=0
split_feature=0 22 25 49 3 5 5 7 68 96
split_gain=31.9109 22.3919 17.7056 19.8864 20.4519 28.5965 14.9418 14.0946 2.69934 2.4037
threshold=3.9294803444963082 -1.164836628890759 -0.94984844255656486 -0.60236302858355428 0.081715953685242579 -0.55359554125526944 3.3643077182007111 0.30536005691373308 0.019557049665507684 -0.41490452649653559
decision_type=2 2 2 2 2 2 2 2 2 2
left_child=1 -1 9 7 5 -5 -6 8 -4 -3
right_child=-2 2 3 4 6 -7 -8 -9 -10 -11
leaf_value=-0.031774193383213488 -0.029557376085162516 0.033896945570501338 0.037852416767972678 -0.012841572002332194 -0.01097862323714789 0.0091462640237106301 0.0077709965046382622 -0.0059543727771212349 0.018470916588479061 0.014775775227967443
leaf_weight=7.7923700809478751 13.838019654154776 6.8325619846582413 8.9633704274892825 29.685730174183846 81.670151501893997 114.14494714140892 21.257998138666153 5.687200501561164 5.4722944349050513 5.4686494469642621
leaf_count=33 60 28 36 121 333 459 86 23 22 22
internal_value=0 0.00143065 0.00237565 0.00128175 -0.000272755 0.00458845 -0.00708302 0.0203501 0.0308205 0.0257454
internal_weight=300.813 286.975 279.183 266.882 246.759 143.831 102.928 20.1229 14.4357 12.3012
internal_count=1223 1163 1130 1080 999 580 419 81 58 50
is_linear=0
shrinkage=0.02


Tree=15
num_leaves=24
num_cat=0
split_feature=2 5 28 5 5 25 80 24 5 53 5 25 72 29 72 49 38 36 22 64 26 58 13
split_gain=30.9521 18.8198 17.9535 16.6162 21.9893 27.2566 15.7516 23.1031 11.711 9.52032 9.41365 26.7406 8.81024 7.44958 5.08565 4.73009 2.60858 1.87812 1.59871 1.57779 1.35562 0.832241 0.132467
threshold=0.59353115838213566 0.33608243799894344 -1.2405064334189384 -0.8190498430881058 -0.55854963094062759 -0.57701909393225559 1.9924785455278122 -0.49242745555067308 -0.72911818894426472 -1.4374613575291137 3.3643077182007111 3.6724774724172304 -0.19770246102106351 -1.5682749201559452 0.52154329305310299 -0.41458719152069917 -1.8312331660502073 0.43662952153703771 0.13865620464626657 0.76250038612063697 -0.42736035700226888 0.20348636267948969 -0.36577642438284003
decision_type=2 2 2 2 2 2 2 2 2 2 2 2 2 2 2 2 2 2 2 2 2 2 2
left_child=1 2 16 18 8 -6 10 9 -5 -8 14 -12 21 -11 19 -14 -1 -3 -4 22 -15 -13 -2
right_child=6 17 3 4 5 -7 7 -9 -10 13 11 12 15 20 -16 -17 -18 -19 -20 -21 -22 -23 -24
leaf_value=0.03668713165521699 -0.024514370937635168 0.037721604691111708 0.031837103292364437 -0.00039447114352335658 0.029522901973897703 0 0.014175854841487213 0.030588722690388332 -0.028596802912579898 0.0028235205200230966 0.024936494970904721 -0.031755164679197916 0.0086648466093243465 -0.029873447082435653 -0.0076733581398617202 -0.01802586935165338 0.015892138853660049 0.019142893779472616 0.015354178469138348 -0.016563702282150532 -0.014626304376819268 -0.01901033143925223 -0.03326175441996803
leaf_weight=5.9543848633766174 4.8098053336143574 5.9830897003412229 6.1349471956491453 9.8826328814029711 13.676098689436911 134.53945328295231 5.656941980123519 8.1941571831703168 15.038454741239546 5.9499108195304897 7.4798275977373114 9.8276138305664045 5.5753852874040604 7.3373966664075869 6.5940369814634314 4.8263844549655914 5.2305081933736783 4.9858745038509369 5.4217230677604675 4.8211914598941794 4.9007273316383362 4.643305405974389 13.003452092409134
leaf_count=24 20 24 25 40 55 543 23 33 62 24 30 42 23 31 27 20 21 20 22 20 20 20 54
internal_value=0 0.00431439 0.00286781 0.00135934 -0.000185223 0.00272906 -0.0095395 0.00177592 -0.0175392 -0.00812827 -0.0154524 -0.00788957 -0.0179016 -0.0152144 -0.0236999 -0.00358283 0.0273668 0.0297067 0.0244739 -0.0282267 -0.0240979 -0.0279615 -0.0311615
internal_weight=300.467 206.847 195.878 184.693 173.137 148.216 93.6201 32.0391 24.9211 23.845 61.581 32.3525 24.8727 18.188 29.2285 10.4018 11.1849 10.969 11.5567 22.6344 12.2381 14.4709 17.8133
internal_count=1223 836 792 747 700 598 387 131 102 98 256 135 105 75 121 43 45 44 47 94 51 62 74
is_linear=0
shrinkage=0.02


Tree=16
num_leaves=12
num_cat=0
split_feature=0 5 5 4 51 15 68 71 101 68 69
split_gain=30.2585 17.7039 18.2557 31.6377 19.7161 27.4258 22.9009 14.2347 5.24491 1.75584 1.62295
threshold=3.9294803444963082 -0.8190498430881058 -0.55854963094062759 -0.57794788277158993 0.22280296083417239 0.9329622209294216 -0.060957855715982633 0.64511517748099212 -0.34552602750065536 -0.33449693859058921 0.37164002774730726
decision_type=2 2 2 2 2 2 2 2 2 2 2
left_child=1 10 7 9 6 -6 -5 8 -3 -4 -1
right_child=-2 2 3 4 5 -7 -8 -9 -10 -11 -12
leaf_value=0.034303903533945211 -0.02899585673387696 -0.0095989506675944556 0.036848158940282927 -0.013010504957593913 0.012353351659930591 -0.020559944729030968 0.0028469249176154487 0.0080002924915433937 -0.032008313992704047 0.020958301247153224 0.017867091955134758
leaf_weight=4.8822292238473874 13.640569001436232 6.8470615446567598 8.4453929811716062 65.521104633808136 74.04453332722187 11.597614631056784 81.486009955406189 7.4075901806354514 12.569667324423788 6.1939668208360663 7.3871256709098816
leaf_count=20 60 28 34 268 298 48 330 30 52 25 30
internal_value=0 0.00138667 0.000323009 0.00203215 0.000223145 0.00785414 -0.00421118 -0.015308 -0.0242981 0.0304486 0.0247938
internal_weight=300.023 286.382 274.113 247.289 232.649 85.6421 147.007 26.8243 19.4167 14.6394 12.2694
internal_count=1223 1163 1113 1003 944 346 598 110 80 59 50
is_linear=0
shrinkage=0.02


Tree=17
num_leaves=13
num_cat=0
split_feature=0 22 49 0 23 32 11 31 7 23 48 61
split_gain=29.3207 21.0302 16.728 21.8265 17.292 19.0974 14.5347 30.4985 13.5684 13.5572 12.9228 1.8701
threshold=3.9294803444963082 -1.164836628890759 -0.60236302858355428 0.087966579559725325 6.0040062181108604 -0.11022590732914829 0.21537407316038434 0.27550760507879396 0.30536005691373308 -0.0076924881483761308 0.17449323140244866 -0.44497426695947023
decision_type=2 2 2 2 2 2 2 2 2 2 2 2
left_child=1 -1 8 6 5 -5 9 -8 11 -4 -6 -3
right_child=-2 2 3 4 10 -7 7 -9 -10 -11 -12 -13
leaf_value=-0.031065709323709171 -0.02867354224109692 0.018657372997914378 0.012621396818210397 -0.023329025299383074 0.037778807063100252 -0.0031866705174173043 -0.021535282653259064 0.0079493967261338831 -0.0059994199778879423 -0.017188958857782138 -0.0057295446661080043 0.035665041573550681
leaf_weight=7.6750244051218024 13.520355224609373 4.9698368459939966 87.61739881336689 26.802416354417801 5.7359040677547437 63.885800659656525 20.924977645277977 42.022445991635323 5.6808752119541159 6.4182382076978675 4.9589705914258957 9.4327759146690369
leaf_count=33 60 20 354 111 23 260 85 170 23 26 20 38
internal_value=0 0.00136075 0.00227255 0.000894209 -0.00632638 -0.0091808 0.00557122 -0.00183879 0.019813 0.0105494 0.0175535 0.0301033
internal_weight=299.645 286.125 278.45 258.366 101.383 90.6882 156.983 62.9474 20.0835 94.0356 10.6949 14.4026
internal_count=1223 1163 1130 1049 414 371 635 255 81 380 43 58
is_linear=0
shrinkage=0.02


Tree=18
num_leaves=19
num_cat=0
split_feature=2 67 67 5 28 5 5 4 5 1 4 37 11 77 7 96 33 66
split_gain=28.3318 18.9167 23.8061 18.0348 16.9694 15.3481 20.4535 25.4687 11.2309 8.1036 11.8734 11.2282 21.0143 7.94552 3.1808 2.02062 1.81611 0.837685
threshold=0.59353115838213566 1.0540905744103453 1.6938107625341814 0.33608243799894344 -1.2405064334189384 -0.8190498430881058 -0.55854963094062759 -0.57794788277158993 -0.72911818894426472 0.88557451713362811 4.1373194094601322 0.389450616938189 -0.010915451294915956 -0.28015655060182559 -1.0914528694929 -0.41490452649653559 0.43548176424617269 1.4284849983835828
decision_type=2 2 2 2 2 2 2 2 2 2 2 2 2 2 2 2 2 2
left_child=3 9 13 4 14 15 8 -8 -7 -2 11 12 -11 -3 -1 -6 -5 -15
right_child=1 2 -4 16 5 6 7 -9 -10 10 -12 -13 -14 17 -16 -17 -18 -19
leaf_value=0.036274992952580756 -0.030963720397347294 0 -0.019147358648162718 0.036892605504845244 0.032543274795640981 -0.00025466634696924117 0.029056369250757892 -1.9409693799826591e-05 -0.027933916219173904 -0.011479511520013612 -0.029671931348982446 -0.027358163509776736 0.021586251059144208 0.023358869223281578 0.013558233414881793 0.014439235447334775 0.018611342803449404 0.037991687394744546
leaf_weight=6.191353976726532 10.301425248384474 4.8951514959335318 9.2378024011850339 5.9686585217714292 5.5236521363258362 9.8675852268934268 13.117698475718496 134.91487398743629 14.909027516841887 27.406495928764336 11.572332814335821 8.7003114521503431 10.555682763457304 4.965268626809122 4.9596701115369779 5.9607732743024808 4.9823300987482071 5.2341075390577316
leaf_count=25 43 20 38 24 23 40 53 545 62 114 52 36 43 20 20 24 20 21
internal_value=0 -0.00917247 0.00590041 0.00412338 0.00270517 0.00123737 -0.000244993 0.00256147 -0.0170361 -0.0145537 -0.0115685 -0.0069822 -0.00220021 0.0213863 0.0265593 0.0235251 0.0289999 0.0313583
internal_weight=299.264 92.8686 24.3323 206.396 195.445 184.294 172.809 148.033 24.7766 68.5362 58.2348 46.6625 37.9622 15.0945 11.151 11.4844 10.951 10.1994
internal_count=1223 387 99 836 792 747 700 598 102 288 245 193 157 61 45 47 44 41
is_linear=0
shrinkage=0.02


end of trees

feature_importances:
ema_55=28
sma_50=23
sma_10=17
atr=17
adx_slope=16
mid_20=15
volatility_24=14
adx_lag_6=13
obv=10
skew_20=10
macd_histogram_lag_12=10
adx_lag_12=9
ema_9=8
macd_histogram=6
bb_upper=6
price_sma20_ratio=6
volatility_12=6
macd_histogram_lag_6=6
cci=5
price_sma50_ratio=5
volume_zscore=5
di_minus=4
stoch_d=4
willr=4
high_low_range=4
upper_shadow=4
volume_sma20_ratio=4
sma_20=3
ema_21=3
macd=3
bb_lower=3
price_position=3
return_6=3
return_24=3
kurt_20=3
adx_lag_3=3
rsi_change_3=3
bb_percent=2
sma10_sma20_cross=2
return_3=2
momentum_score_lag_6=2
momentum_score_lag_12=2
body_size=2
volume_change_3=2
obv_change_12=2
dollar_volume=2
dollar_volume_change=2
stoch_k=1
bb_bandwidth=1
mfi=1
momentum_score=1
price_ema21_ratio=1
close_open_range=1
bb_pct_b=1
return_1=1
return_12=1
cum_return_6=1
cum_return_24=1
volatility_6=1
zscore_6=1
zscore_12=1
rsi_lag_1=1
rsi_lag_12=1
macd_histogram_lag_3=1
momentum_score_lag_1=1
rsi_normalized=1
stoch_diff=1
higher_high_12=1
roc_6=1

parameters:
[boosting: gbdt]
[objective: binary]
[metric: binary_logloss]
[tree_learner: serial]
[device_type: cpu]
[data_sample_strategy: bagging]
[data: ]
[valid: ]
[num_iterations: 500]
[learning_rate: 0.02]
[num_leaves: 50]
[num_threads: 0]
[seed: 42]
[deterministic: 0]
[force_col_wise: 0]
[force_row_wise: 0]
[histogram_pool_size: -1]
[max_depth: 6]
[min_data_in_leaf: 20]
[min_sum_hessian_in_leaf: 0.001]
[bagging_fraction: 0.8]
[pos_bagging_fraction: 1]
[neg_bagging_fraction: 1]
[bagging_freq: 0]
[bagging_seed: 400]
[bagging_by_query: 0]
[feature_fraction: 0.7]
[feature_fraction_bynode: 1]
[feature_fraction_seed: 30056]
[extra_trees: 0]
[extra_seed: 12879]
[early_stopping_round: 0]
[early_stopping_min_delta: 0]
[first_metric_only: 0]
[max_delta_step: 0]
[lambda_l1: 0.1]
[lambda_l2: 0.1]
[linear_lambda: 0]
[min_gain_to_split: 0]
[drop_rate: 0.1]
[max_drop: 50]
[skip_drop: 0.5]
[xgboost_dart_mode: 0]
[uniform_drop: 0]
[drop_seed: 17869]
[top_rate: 0.2]
[other_rate: 0.1]
[min_data_per_group: 100]
[max_cat_threshold: 32]
[cat_l2: 10]
[cat_smooth: 10]
[max_cat_to_onehot: 4]
[top_k: 20]
[monotone_constraints: ]
[monotone_constraints_method: basic]
[monotone_penalty: 0]
[feature_contri: ]
[forcedsplits_filename: ]
[refit_decay_rate: 0.9]
[cegb_tradeoff: 1]
[cegb_penalty_split: 0]
[cegb_penalty_feature_lazy: ]
[cegb_penalty_feature_coupled: ]
[path_smooth: 0]
[interaction_constraints: ]
[verbosity: -1]
[saved_feature_importance_type: 0]
[use_quantized_grad: 0]
[num_grad_quant_bins: 4]
[quant_train_renew_leaf: 0]
[stochastic_rounding: 1]
[linear_tree: 0]
[max_bin: 255]
[max_bin_by_feature: ]
[min_data_in_bin: 3]
[bin_construct_sample_cnt: 200000]
[data_random_seed: 175]
[is_enable_sparse: 1]
[enable_bundle: 1]
[use_missing: 1]
[zero_as_missing: 0]
[feature_pre_filter: 1]
[pre_partition: 0]
[two_round: 0]
[header: 0]
[label_column: ]
[weight_column: ]
[group_column: ]
[ignore_column: ]
[categorical_feature: ]
[forcedbins_filename: ]
[precise_float_parser: 0]
[parser_config_file: ]
[objective_seed: 16083]
[num_class: 1]
[is_unbalance: 0]
[scale_pos_weight: 1]
[sigmoid: 1]
[boost_from_average: 1]
[reg_sqrt: 0]
[alpha: 0.9]
[fair_c: 1]
[poisson_max_delta_step: 0.7]
[tweedie_variance_power: 1.5]
[lambdarank_truncation_level: 30]
[lambdarank_norm: 1]
[label_gain: ]
[lambdarank_position_bias_regularization: 0]
[eval_at: ]
[multi_error_top_k: 1]
[auc_mu_weights: ]
[num_machines: 1]
[local_listen_port: 12400]
[time_out: 120]
[machine_list_filename: ]
[machines: ]
[gpu_platform_id: -1]
[gpu_device_id: -1]
[gpu_use_dp: 0]
[num_gpu: 1]

end of parameters

pandas_categorical:[]
